a 0.465682703859 -0.0320462559262 0.226437521061 -0.0397137847495 0.275271916026 -0.221065132675 0.230536386629 0.0853619071143 0.306311839666 0.0443739021404 -0.220260348614 0.0782908991124 -0.132229199222 -0.296975730134 -0.128519625689 -0.375660379655 0.177768655535 -0.290634648729 -0.0667601275024 -0.099494112453
aa 0.54784929067 0.0629029711817 -0.226078328195 0.189244486428 0.0930454594512 -0.179857689789 0.21322364283 0.17037544284 0.378243595385 0.00671641845829 -0.289939896342 0.0143531423925 0.028842735485 -0.148341666402 0.109641323671 -0.055108655646 -0.0285828368322 -0.348629569074 -0.225302421959 -0.234692496486
ai 0.267034529363 0.0812651869836 0.118032946467 0.194375678883 0.214680899109 0.48502762535 -0.0713009543574 0.0261002816295 0.203575774864 -0.266270364413 -0.589581266985 0.0612759429504 0.00336304500717 0.261698782035 -0.0600359746645 0.117241483738 -0.105986058663 0.142189135831 -0.0427700267389 -0.0209470945753
au 0.25600196104 0.0231943445666 0.210242326013 -0.144164196624 0.150888150252 0.173942136797 0.029487803491 0.338769757081 0.175860880078 0.58178247972 -0.201882428246 -0.155680264155 -0.0414186418755 -0.308984625484 -0.00391562956335 0.144469481928 -0.020238910647 -0.144046072552 0.290258937285 0.205933542216
b 0.302468488402 0.0218216326083 0.16446379339 0.02005341724 -0.000143895903398 0.441521158908 -0.00269942346844 0.443789730639 0.165405261067 0.411167605345 0.133524342218 0.138680851881 0.183115243135 0.0346175748285 -0.0742361425468 -0.0219579275368 -0.123108684169 -0.0482188709151 -0.442894045129 0.0291734273294
bh 0.300842938734 -0.00785879129421 0.161782410169 -0.190816853034 0.0120597912697 0.0485008039422 -0.0811249077671 0.0590302620673 0.219188836509 0.259418375702 0.287538018612 0.286826031112 -0.0884952040463 0.36107987079 0.210113070378 0.0640033953769 0.13033785058 -0.370113179537 0.314351054176 0.338751111491
c 0.282232174698 -0.056978802817 0.124638167265 0.274166180902 -0.16084661818 0.0243960905649 0.00248314654641 -0.24351065443 -0.332712643084 0.319935646553 -0.153618303065 0.336613708644 0.378193168194 -0.0167504279639 -0.0260849462147 -0.263412496994 -0.250655915738 0.310442172016 0.102941626847 0.0865183256337
ch 0.241038317532 -0.0571408539889 0.0806015792416 0.207415571459 -0.141780876647 0.47477985552 0.0289943692417 -0.0162934319311 0.162755787231 -0.363678084582 0.60881030218 -0.0580754608297 0.08394417551 -0.220105211125 -0.177963326727 0.0594763216641 -0.032880828269 0.0381815043597 0.0470934120732 0.119422483322
d 0.363055745837 -0.069668912471 0.204082975676 0.0878414534231 -0.348590729242 0.009640202092 -0.0314046813412 -0.211224508933 -0.12743278566 0.197087662724 -0.022809317198 0.206528794888 0.309059863639 -0.0313969339162 -0.0625774040136 0.0318719963389 -0.375846401391 0.511061654615 -0.211238359502 -0.00124097961985
dh 0.362306504137 -0.0820441316612 0.185670383782 -0.348379016641 -0.494328224962 0.0224979745808 -0.138614944294 0.0933460656281 0.173097445941 0.303003557502 -0.0650845195516 -0.217372076588 0.120017022374 0.220084411163 -0.0654640528851 0.0615108752276 -0.0320690698156 -0.0140062037624 -0.433525801509 -0.00520615073448
dx 0.215096611417 -0.0408895707768 0.115428881042 0.0250557893081 -0.243503464018 0.118741713726 -0.0202381292974 -0.00270012590956 -0.604197656837 0.138589487522 -0.0774854353016 0.493109309452 -0.161691912199 -0.0950279595306 -0.064815488684 -0.331337591179 -0.0624831787894 -0.217664319506 -0.0879640511518 0.15065529121
dxh 0.331551833482 -0.0489030667848 0.130292482258 -0.222012465439 -0.565862846932 0.0119457003206 -0.100158020674 -0.158724078405 -0.464613751519 -0.0829494190135 -0.218341919751 0.190526877956 -0.0167831644439 -0.143649144011 0.0429928039884 0.189557146549 0.0801471796786 -0.195005961562 -0.155662097235 0.1781822804
e 0.34243966716 0.0556906384566 0.233158252491 0.0515999382851 0.350905850132 0.0293412934656 0.0072709309963 0.155680922504 -0.545602856245 0.0262772692926 0.11484492579 -0.487246415447 -0.033722838143 0.156128598463 -0.0686671544003 -0.279425480512 -0.0895256672906 0.0483018024568 -0.0463647709861 -0.0674308095249
ee 0.289281737258 0.112863494567 0.148217517206 0.315434522968 0.22732655993 -0.168094070506 -0.429542859383 -0.305633321957 -0.0268192897618 0.312958913719 0.0817822965883 -0.184091656027 0.308990640446 -0.110622875481 0.172260491082 -0.0361279010716 0.222129372191 0.201062957764 0.165909891554 0.170389908913
ei 0.320917947868 0.136169557806 0.0691329272559 0.439257467009 0.0896857895581 -0.0779505113249 -0.357731219497 -0.407086914383 -0.123450475083 0.232796161724 0.0794861483932 -0.14611728727 0.267928727614 -0.17134271663 -0.00368992053237 0.156108903828 0.183329280221 0.260447010407 0.220845033993 -0.0093229606835
g 0.312678384955 -0.0704415134534 0.140079095106 0.0952127146657 -0.157956072704 -0.0151901185545 -0.0893829645029 0.48126853623 0.0555546139382 0.218890660036 0.354557699876 0.0201480718714 -0.196371558952 0.472574094091 -0.203692295306 -0.234719003295 -0.167843127761 -0.137597901485 0.144204235779 -0.0174785444055
gh 0.144688585709 0.00957773412596 0.0982634699387 0.00938962794093 -0.0391120986397 0.185678549012 -0.01677537914 -0.0264098758679 0.0185147597863 -0.0453295676531 0.114084541405 -0.0216860647007 0.115764872122 0.0777254861076 -0.236105083902 -0.657214567596 -0.60453613479 -0.133598101932 -0.0242681472195 0.159187334336
h 0.422586997362 -0.0440317395676 0.318600647453 -0.0576632787883 -0.317354431038 -0.0495690434293 -0.106435768364 0.478539087691 0.081343629106 -0.01725912372 0.164051141494 -0.383357006678 0.0120242086915 0.242585782444 0.118125531457 0.0950927664449 0.119450606737 0.273835599126 -0.0513889491845 0.128362348069
hq 0.120649856133 0.0935321117925 -0.013292469799 0.146929520022 0.0652374343125 0.100038424197 -0.225098540559 -0.197453859359 0.0445421562982 0.12965708823 -0.0923622777667 0.0224557078058 -0.631987397122 0.142844290137 -0.562459103714 -0.0565246490301 0.224701604297 0.16137760148 -0.0806933405125 0.027687244699
i 0.563134731527 0.282965073415 -0.244552536233 -0.273417379622 0.213903503648 0.0315427242371 0.0840388858849 -0.160048295098 -0.288414660024 0.0896774806528 0.101476778995 -0.267988414775 0.185678224027 0.134182110552 -0.0599711123117 0.0455129509465 -0.037177308952 0.279626647415 -0.278841578581 -0.00198817266005
ii 0.445576348878 0.129153031694 0.168590107842 0.251784049174 0.255571009638 0.24193793149 -0.0255650603878 -0.164628886743 -0.150103131281 -0.303458206971 -0.278928579396 -0.0997920159095 0.088693199104 0.287575460329 0.112059816687 0.209170814122 -0.286373999788 -0.105976717692 0.30762591716 0.0650261714705
j 0.44385513052 -0.637068751538 -0.447155997966 0.0243266629294 0.087893702613 0.0347961827627 0.0232651333531 -0.085099852117 -0.300653021152 0.0115438676436 -0.0287536602247 0.122998164916 0.0887151009771 -0.032733565875 -0.0370863074541 0.178289084173 0.0331808817706 -0.0848639591843 0.141533117761 -0.0543771335027
k 0.350529745681 -0.0382893712246 0.285495709336 -0.316541939415 -0.227507227174 -0.0767191444104 -0.101458908765 0.156274653704 0.1003247192 0.174484422292 0.208047156639 0.190812414684 -0.179225333861 0.537336899245 0.0858975814783 0.046044542139 0.127402945571 0.210359111677 0.179543352804 -0.241501302501
kh 0.25318145672 0.0346794955311 0.170050339707 0.36647746176 -0.0105062528034 -0.427006959286 -0.545428970752 0.16633907506 0.0840559337491 -0.074958996377 0.0453723121754 -0.101227301419 0.0129926301328 0.00276751784102 0.312259216844 0.0639936209056 -0.244340575898 -0.169085434949 -0.199569564387 -0.0947592397044
l 0.312874686627 0.101664614968 0.0403280475543 -0.0138447985346 0.230681030706 0.151893752181 0.0219343278632 -0.0382994453961 -0.562130820312 -0.105905229069 0.216664597755 -0.0709186721156 -0.132920318947 0.227568816715 -0.0500470029608 0.168340143793 -0.12614851439 -0.444337133075 -0.114467067432 -0.325257102582
lx 0.313146478024 -0.00293192123952 0.275320263758 0.238767205578 0.00679682260359 -0.4122644346 0.0327816670454 0.582510566636 -0.200232806866 -0.283966674889 -0.0464975478641 0.144796640343 -0.149347435472 -0.172529228005 -0.0529940261354 -0.0667286697781 0.042329988965 0.179869778473 0.145772958121 0.011539939393
m 0.417240407692 -0.066788705797 0.275771652998 0.0176316849132 -0.155686290003 -0.0943850413975 0.306258786509 0.230193677941 0.225194220015 -0.117558267575 0.160710734437 0.283470028905 -0.0522759519836 -0.303550016685 -0.385666600099 0.227427901569 0.201622292272 -0.0823652620232 -0.223073488432 -0.04368052186
n 0.24645592373 -0.246187398936 -0.184917547896 0.0865900816175 -0.0141092368689 0.191358252703 0.0555144612576 -0.085507348454 0.0989547573044 0.100760705487 0.0709749126659 0.0517291890401 -0.631869260842 -0.0737754970418 0.411244398206 -0.0017840058391 -0.160392424922 0.330133279746 -0.166591615809 -0.160614982826
ng 0.348261712756 -0.6763117953 -0.602309212624 -0.0614320366356 0.123775629949 -0.0636813314786 -0.10871016284 0.0914671325204 0.0600036745213 -0.0157030359484 -0.0183940905944 -0.016619552231 0.0396877195886 0.0282062985253 -0.0515779716436 -0.0569463015453 -0.00364460513812 0.0247581192958 0.00778070026024 0.0422345092397
nj 0.360856522921 0.68718106968 -0.601422646467 -0.0488332728953 -0.131389936836 -0.0508827405122 0.0688026961917 0.0585674588311 0.00229988606503 0.00593321636808 0.0451589646663 0.00016630946576 0.00387582060157 -0.00770789798438 0.0171856141585 -0.0213249049216 0.0205375321531 0.0340595940999 0.0309139723772 0.00355378206543
nx 0.344009524031 -0.0361900104016 0.260450257785 -0.432546791575 -0.26665003852 -0.233883927552 -0.170110752516 -0.0711127520088 0.26615997033 -0.149487555861 0.107940335845 -0.0534054423136 -0.0358816414611 0.532535677758 0.189554296832 -0.0221052725603 0.0719197525109 0.000466366136123 0.0814538420349 0.157538924062
o 0.299940673444 0.086114590105 0.180769459537 -0.0830502956484 0.250239229026 0.22554571457 -0.00475357629145 0.230966407608 0.114897564641 0.303353567095 -0.238401617574 -0.295210409645 -0.117645004865 -0.279363992583 -0.00477425797264 0.12900464088 -0.0891322696366 0.359033227971 -0.282863730624 0.348663245234
oo 0.363920180543 0.139977360217 0.057847607293 0.136775611427 -0.0300212373158 0.335559251415 -0.105097568659 -0.0639002955789 -0.37459487865 -0.116696956244 -0.0728762435654 -0.00510551299285 -0.145141646127 -0.154298328128 -0.326595394577 0.0567795790094 -0.246150974628 -0.28742724459 0.0799100663614 0.483378829704
p 0.267047731385 -0.211467587744 -0.0259241276282 0.290283898833 -0.133383656622 0.0366329887106 0.432206340947 -0.323770424636 0.110717791012 0.073639479627 0.131875848003 -0.0648816073556 -0.426089148162 -0.0836476841191 0.468168461876 -0.075452548 -0.187296317594 -0.0117442881915 0.00489306031178 0.0178841581454
ph 0.323240873979 -0.0741035128838 0.127734060668 0.180702048812 -0.0826948656975 0.600035624043 0.0177375618755 0.0730774603102 0.140144224191 -0.280895009965 -0.10145961134 -0.0725513987663 0.138092444928 -0.123849056569 0.253977659755 -0.06927368545 0.481532378797 -0.107505156348 -0.027117522725 -0.0808747959133
q 0.226546555321 0.0190385986199 0.134996816819 0.0353127163889 0.164317463682 0.182829516921 0.00867601104052 -0.0015640576126 -0.168193555026 0.138621794293 -0.174906256773 -0.146619203608 0.210455698218 -0.0493220807193 0.270805226004 -0.56384374703 0.506368977353 0.0406165522664 -0.155133079602 -0.220542489459
r 0.527349104647 0.456456512957 -0.152464345722 0.0209728069846 0.119545042977 0.154406260514 -0.124509516377 -0.0310297730257 0.318044898913 -0.265883403971 -0.251228398444 0.325248678854 0.00242164880595 -0.0483157032621 0.0229464086227 -0.0173532780373 -0.17741209234 -0.217361473023 0.112270402328 -0.00497578971314
rq 0.369325444312 0.0827857682405 0.250563897303 -0.477149878654 0.611166218045 -0.133046654292 0.114125650939 -0.169786494047 0.0470932806124 -0.0654932154558 0.12687165213 0.248431000787 0.0289583971925 -0.119905817311 0.0622160140417 0.0876392342779 -0.0127292532775 0.116950681102 -0.077958422933 0.0469818450635
s 0.25251553665 -0.0232282840634 0.15672969809 0.0353146986961 -0.131891250129 0.197657234508 0.0824408158516 0.160096906232 0.0311099029422 0.427055347193 0.137451590319 0.297109135698 0.0674608862072 0.0597823966345 -0.0937681568258 0.129172810667 -0.118186047398 -0.125001929182 0.381786636301 -0.56703219547
sh 0.261903566965 -0.0751410273605 0.13153791389 0.462954978342 -0.0617058185471 -0.348437489293 0.631175218011 -0.16527011778 0.117050052031 0.0776270786032 -0.0346741354821 -0.0294711898498 0.157645896204 0.207378364768 -0.159669291483 0.0473566403299 0.108132246812 -0.0409485330549 -0.060396179427 0.0938542276737
sil 0.444069114377 -0.11783533798 0.150834515396 -0.00950405701987 0.0296769959922 0.299585733519 -0.0255523201944 -0.0907571412726 -0.338356112263 0.0493780886637 0.39731433692 -0.0207271284379 -0.0522211580151 0.11917696269 -0.102720511861 0.243596788614 0.381361548496 -0.0159183603087 -0.0951836281058 -0.387003315049
ssil 0.461697817715 -0.0257155449654 0.199901637993 0.222205601869 -0.206440583215 0.392780273746 0.147630034891 -0.162027409968 -0.182715634374 0.195131205887 0.0450769975562 0.301213066637 -0.352734058716 0.0624422703445 0.159070823476 0.170218675742 -0.0642202260547 0.194874285712 0.173192403984 -0.181603209958
sx 0.323115241387 -0.0643341633875 0.235735046834 -0.417434871081 -0.301300948094 -0.162536122507 0.0792842144747 -0.230354851517 0.232150983136 -0.10560250006 -0.204822387036 -0.372733754132 -0.00366249622821 -0.316015693594 -0.216702508022 -0.0944831474451 -0.122841796747 -0.00424557031839 0.141752585904 -0.219518210573
t 0.508760713481 -0.415777396608 -0.0346257185156 -0.366324111518 -0.561928950556 0.0489879183419 -0.134796248727 -0.0516782025307 -0.0411698984438 0.0223774226739 -0.0580196590101 -0.151800509985 -0.034294502025 0.0170700861614 -0.102541176581 0.120379656706 0.0924101836626 0.16592469 0.0027118524544 -0.05232524612
th 0.151326706938 0.0132121483316 0.0380647640044 0.0313160063225 0.0401558489921 0.0886149351324 -0.0811502416712 0.123071058574 0.0927508584839 0.322247656881 -0.0609836425963 -0.258697432471 -0.0628835107204 -0.0322983109743 -0.00255232531542 0.0901244662154 0.136824459685 -0.194501180914 0.316618013469 0.768299682899
tx 0.331127247414 0.000883918198044 0.241091275579 -0.199819817753 -0.0601474603479 0.0675413389419 -0.0667646575979 -0.213582062748 0.0428975229431 -0.0808693868292 0.0622027521534 0.335094185281 -0.00244573695875 0.11131460352 0.0164120553133 -0.677796026605 0.215500629813 -0.134843600436 0.248302603438 0.105631681712
txh 0.23848662507 0.0846166714124 0.0679266480482 0.395632975439 0.0789669857678 -0.259611664437 -0.668807889624 -0.293334927741 0.252561624554 0.0793046234431 0.0878180848738 0.123318560653 -0.0629819114111 -0.118793835545 -0.0911029128695 -0.0214767493682 0.0329999388506 -0.191654638524 -0.0899265605287 -0.045806570808
u 0.240278330828 -0.0106688333863 0.103254833343 0.113398604728 0.0112070368741 0.16221639196 0.212822790062 -0.0564520787208 -0.107723477291 0.212879592815 -0.0308054975814 -0.160237609831 -0.637926851234 -0.344771853173 0.400215899963 -0.0984527241266 -0.0747497452512 0.0473167577676 -0.145066821803 0.188705160291
uu 0.322066469726 0.112595457533 0.0910327387054 -0.0385815347509 0.372320157071 0.0619094248409 -0.0102536944505 -0.0516256778929 -0.498784010629 0.012333166886 0.137080015031 -0.530958626766 -0.156236216444 0.169808293904 -0.0736411593563 0.0807173500809 -0.0814378559024 -0.305299597222 0.0544652468582 -0.104688050555
w 0.50272759128 -0.0869541330084 0.286539671974 0.0387157045921 -0.404867804897 -0.210624742921 -0.281160041695 -0.0614074324455 0.123725006216 -0.0903998855245 0.112689033142 -0.177825374466 0.197136776619 -0.184534668958 0.0386285491978 0.250874648521 -0.0896458872672 0.293688684719 -0.148583487149 -0.208528434912
y 0.31234336074 0.0244307440853 0.155309628228 -0.0794270177385 0.324284983774 -0.254113767698 0.269887937459 0.00409994965223 -0.0160253513827 -0.0465822373266 0.153743426253 0.0252933399218 -0.0278523479163 0.0143798424984 -0.28324283519 0.180885517987 0.114616980248 -0.559995690194 -0.401385312363 -0.0186990227572
